digraph Tree {
node [shape=box] ;
0 [label="Text_Reuse_Score <= 0.57\nmse = 157.683\nsamples = 55\nvalue = 15.52"] ;
1 [label="Unique_Words_Final <= 10405.0\nmse = 257.405\nsamples = 15\nvalue = 26.242"] ;
0 -> 1 [labeldistance=2.5, labelangle=45, headlabel="True"] ;
2 [label="Unique_Words_Draft <= 19311.5\nmse = 94.276\nsamples = 6\nvalue = 14.678"] ;
1 -> 2 ;
3 [label="Unique_Words_Final <= 6238.0\nmse = 25.069\nsamples = 5\nvalue = 10.847"] ;
2 -> 3 ;
4 [label="Unique_Words_Draft <= 7494.5\nmse = 20.097\nsamples = 2\nvalue = 15.45"] ;
3 -> 4 ;
5 [label="mse = 0.0\nsamples = 1\nvalue = 19.933"] ;
4 -> 5 ;
6 [label="mse = 0.0\nsamples = 1\nvalue = 10.967"] ;
4 -> 6 ;
7 [label="Text_Reuse_Score <= 0.425\nmse = 4.838\nsamples = 3\nvalue = 7.778"] ;
3 -> 7 ;
8 [label="mse = 0.0\nsamples = 2\nvalue = 9.333"] ;
7 -> 8 ;
9 [label="mse = -0.0\nsamples = 1\nvalue = 4.667"] ;
7 -> 9 ;
10 [label="mse = -0.0\nsamples = 1\nvalue = 33.833"] ;
2 -> 10 ;
11 [label="Unique_Words_Draft <= 57487.0\nmse = 217.559\nsamples = 9\nvalue = 33.952"] ;
1 -> 11 ;
12 [label="File_Size_Draft <= 14.45\nmse = 151.258\nsamples = 8\nvalue = 37.175"] ;
11 -> 12 ;
13 [label="File_Size_Draft <= 8.2\nmse = 0.667\nsamples = 2\nvalue = 18.316"] ;
12 -> 13 ;
14 [label="mse = 0.0\nsamples = 1\nvalue = 19.133"] ;
13 -> 14 ;
15 [label="mse = 0.0\nsamples = 1\nvalue = 17.5"] ;
13 -> 15 ;
16 [label="Unique_Words_Draft <= 7637.5\nmse = 43.391\nsamples = 6\nvalue = 43.461"] ;
12 -> 16 ;
17 [label="mse = 0.0\nsamples = 1\nvalue = 31.733"] ;
16 -> 17 ;
18 [label="File_Size_Draft <= 57.55\nmse = 19.058\nsamples = 5\nvalue = 45.807"] ;
16 -> 18 ;
19 [label="Unique_Words_Final <= 16446.0\nmse = 3.354\nsamples = 4\nvalue = 43.784"] ;
18 -> 19 ;
20 [label="File_Size_Final <= 24.85\nmse = 0.34\nsamples = 2\nvalue = 45.384"] ;
19 -> 20 ;
21 [label="mse = 0.0\nsamples = 1\nvalue = 44.8"] ;
20 -> 21 ;
22 [label="mse = -0.0\nsamples = 1\nvalue = 45.967"] ;
20 -> 22 ;
23 [label="File_Size_Final <= 50.9\nmse = 1.247\nsamples = 2\nvalue = 42.183"] ;
19 -> 23 ;
24 [label="mse = 0.0\nsamples = 1\nvalue = 43.3"] ;
23 -> 24 ;
25 [label="mse = 0.0\nsamples = 1\nvalue = 41.067"] ;
23 -> 25 ;
26 [label="mse = -0.0\nsamples = 1\nvalue = 53.9"] ;
18 -> 26 ;
27 [label="mse = 0.0\nsamples = 1\nvalue = 8.167"] ;
11 -> 27 ;
28 [label="File_Size_Draft <= 13.8\nmse = 61.008\nsamples = 40\nvalue = 11.499"] ;
0 -> 28 [labeldistance=2.5, labelangle=-45, headlabel="False"] ;
29 [label="Unique_Words_Final <= 17567.0\nmse = 55.438\nsamples = 11\nvalue = 15.421"] ;
28 -> 29 ;
30 [label="File_Size_Final <= 7.5\nmse = 18.874\nsamples = 9\nvalue = 12.445"] ;
29 -> 30 ;
31 [label="File_Size_Final <= 4.2\nmse = 1.361\nsamples = 2\nvalue = 5.134"] ;
30 -> 31 ;
32 [label="mse = 0.0\nsamples = 1\nvalue = 6.3"] ;
31 -> 32 ;
33 [label="mse = 0.0\nsamples = 1\nvalue = 3.967"] ;
31 -> 33 ;
34 [label="Unique_Words_Final <= 14267.5\nmse = 4.243\nsamples = 7\nvalue = 14.533"] ;
30 -> 34 ;
35 [label="File_Size_Final <= 16.7\nmse = 3.015\nsamples = 5\nvalue = 15.447"] ;
34 -> 35 ;
36 [label="File_Size_Draft <= 4.7\nmse = 1.343\nsamples = 3\nvalue = 14.233"] ;
35 -> 36 ;
37 [label="mse = 0.0\nsamples = 1\nvalue = 12.6"] ;
36 -> 37 ;
38 [label="File_Size_Final <= 10.8\nmse = 0.014\nsamples = 2\nvalue = 15.05"] ;
36 -> 38 ;
39 [label="mse = 0.0\nsamples = 1\nvalue = 15.167"] ;
38 -> 39 ;
40 [label="mse = -0.0\nsamples = 1\nvalue = 14.933"] ;
38 -> 40 ;
41 [label="mse = 0.0\nsamples = 2\nvalue = 17.267"] ;
35 -> 41 ;
42 [label="File_Size_Draft <= 7.45\nmse = 0.014\nsamples = 2\nvalue = 12.25"] ;
34 -> 42 ;
43 [label="mse = 0.0\nsamples = 1\nvalue = 12.133"] ;
42 -> 43 ;
44 [label="mse = 0.0\nsamples = 1\nvalue = 12.367"] ;
42 -> 44 ;
45 [label="File_Size_Draft <= 11.45\nmse = 0.667\nsamples = 2\nvalue = 28.816"] ;
29 -> 45 ;
46 [label="mse = 0.0\nsamples = 1\nvalue = 29.633"] ;
45 -> 46 ;
47 [label="mse = -0.0\nsamples = 1\nvalue = 28.0"] ;
45 -> 47 ;
48 [label="Text_Reuse_Score <= 0.939\nmse = 55.072\nsamples = 29\nvalue = 10.011"] ;
28 -> 48 ;
49 [label="Text_Reuse_Score <= 0.723\nmse = 17.357\nsamples = 22\nvalue = 8.294"] ;
48 -> 49 ;
50 [label="File_Size_Final <= 38.25\nmse = 16.993\nsamples = 8\nvalue = 12.396"] ;
49 -> 50 ;
51 [label="Unique_Words_Draft <= 13096.5\nmse = 1.647\nsamples = 2\nvalue = 7.584"] ;
50 -> 51 ;
52 [label="mse = 0.0\nsamples = 1\nvalue = 8.867"] ;
51 -> 52 ;
53 [label="mse = -0.0\nsamples = 1\nvalue = 6.3"] ;
51 -> 53 ;
54 [label="Text_Reuse_Score <= 0.59\nmse = 11.815\nsamples = 6\nvalue = 14.0"] ;
50 -> 54 ;
55 [label="mse = 0.0\nsamples = 1\nvalue = 7.0"] ;
54 -> 55 ;
56 [label="Text_Reuse_Score <= 0.611\nmse = 2.417\nsamples = 5\nvalue = 15.4"] ;
54 -> 56 ;
57 [label="mse = 0.0\nsamples = 1\nvalue = 17.967"] ;
56 -> 57 ;
58 [label="Unique_Words_Final <= 17794.5\nmse = 0.963\nsamples = 4\nvalue = 14.758"] ;
56 -> 58 ;
59 [label="mse = 0.0\nsamples = 1\nvalue = 13.067"] ;
58 -> 59 ;
60 [label="File_Size_Draft <= 46.2\nmse = 0.012\nsamples = 3\nvalue = 15.322"] ;
58 -> 60 ;
61 [label="mse = 0.0\nsamples = 1\nvalue = 15.167"] ;
60 -> 61 ;
62 [label="mse = 0.0\nsamples = 2\nvalue = 15.4"] ;
60 -> 62 ;
63 [label="Text_Reuse_Score <= 0.738\nmse = 2.456\nsamples = 14\nvalue = 5.95"] ;
49 -> 63 ;
64 [label="File_Size_Final <= 171.1\nmse = 0.055\nsamples = 2\nvalue = 8.866"] ;
63 -> 64 ;
65 [label="mse = 0.0\nsamples = 1\nvalue = 8.633"] ;
64 -> 65 ;
66 [label="mse = 0.0\nsamples = 1\nvalue = 9.1"] ;
64 -> 66 ;
67 [label="Text_Reuse_Score <= 0.911\nmse = 1.202\nsamples = 12\nvalue = 5.464"] ;
63 -> 67 ;
68 [label="Unique_Words_Final <= 30816.0\nmse = 0.368\nsamples = 9\nvalue = 4.926"] ;
67 -> 68 ;
69 [label="File_Size_Draft <= 17.9\nmse = 0.231\nsamples = 8\nvalue = 4.783"] ;
68 -> 69 ;
70 [label="Unique_Words_Draft <= 12222.5\nmse = 0.054\nsamples = 2\nvalue = 4.2"] ;
69 -> 70 ;
71 [label="mse = 0.0\nsamples = 1\nvalue = 4.433"] ;
70 -> 71 ;
72 [label="mse = -0.0\nsamples = 1\nvalue = 3.967"] ;
70 -> 72 ;
73 [label="Text_Reuse_Score <= 0.897\nmse = 0.139\nsamples = 6\nvalue = 4.978"] ;
69 -> 73 ;
74 [label="File_Size_Final <= 176.35\nmse = 0.065\nsamples = 4\nvalue = 5.192"] ;
73 -> 74 ;
75 [label="File_Size_Final <= 61.2\nmse = 0.012\nsamples = 3\nvalue = 5.055"] ;
74 -> 75 ;
76 [label="mse = 0.0\nsamples = 2\nvalue = 5.133"] ;
75 -> 76 ;
77 [label="mse = -0.0\nsamples = 1\nvalue = 4.9"] ;
75 -> 77 ;
78 [label="mse = 0.0\nsamples = 1\nvalue = 5.6"] ;
74 -> 78 ;
79 [label="Unique_Words_Final <= 21042.5\nmse = 0.014\nsamples = 2\nvalue = 4.55"] ;
73 -> 79 ;
80 [label="mse = 0.0\nsamples = 1\nvalue = 4.667"] ;
79 -> 80 ;
81 [label="mse = 0.0\nsamples = 1\nvalue = 4.433"] ;
79 -> 81 ;
82 [label="mse = 0.0\nsamples = 1\nvalue = 6.067"] ;
68 -> 82 ;
83 [label="File_Size_Final <= 339.95\nmse = 0.23\nsamples = 3\nvalue = 7.078"] ;
67 -> 83 ;
84 [label="Unique_Words_Final <= 11061.0\nmse = 0.055\nsamples = 2\nvalue = 6.766"] ;
83 -> 84 ;
85 [label="mse = 0.0\nsamples = 1\nvalue = 6.533"] ;
84 -> 85 ;
86 [label="mse = 0.0\nsamples = 1\nvalue = 7.0"] ;
84 -> 86 ;
87 [label="mse = 0.0\nsamples = 1\nvalue = 7.7"] ;
83 -> 87 ;
88 [label="Unique_Words_Final <= 19684.5\nmse = 135.196\nsamples = 7\nvalue = 15.409"] ;
48 -> 88 ;
89 [label="Unique_Words_Draft <= 12975.0\nmse = 7.687\nsamples = 4\nvalue = 8.175"] ;
88 -> 89 ;
90 [label="Text_Reuse_Score <= 0.996\nmse = 3.227\nsamples = 3\nvalue = 9.5"] ;
89 -> 90 ;
91 [label="Unique_Words_Draft <= 9287.0\nmse = 0.028\nsamples = 2\nvalue = 8.234"] ;
90 -> 91 ;
92 [label="mse = 0.0\nsamples = 1\nvalue = 8.067"] ;
91 -> 92 ;
93 [label="mse = 0.0\nsamples = 1\nvalue = 8.4"] ;
91 -> 93 ;
94 [label="mse = -0.0\nsamples = 1\nvalue = 12.033"] ;
90 -> 94 ;
95 [label="mse = -0.0\nsamples = 1\nvalue = 4.2"] ;
89 -> 95 ;
96 [label="File_Size_Draft <= 61.95\nmse = 142.382\nsamples = 3\nvalue = 25.055"] ;
88 -> 96 ;
97 [label="File_Size_Draft <= 34.7\nmse = 5.523\nsamples = 2\nvalue = 33.383"] ;
96 -> 97 ;
98 [label="mse = 0.0\nsamples = 1\nvalue = 31.033"] ;
97 -> 98 ;
99 [label="mse = 0.0\nsamples = 1\nvalue = 35.733"] ;
97 -> 99 ;
100 [label="mse = -0.0\nsamples = 1\nvalue = 8.4"] ;
96 -> 100 ;
}